-0.5139912545552927,0.9047367833743672,0.6086254357951931,-0.657281922117155,0.12240439090883816,0.5618484348955504,0.025519519431168758,0.6187798155388448,-0.2329544274127415,-0.427901271303451,
0.2114731868101826,0.604476756623561,0.6023881127623082,0.5396810878434439,0.08556347124636624,0.1668001187303523,0.5395803508800818,0.29757163514952106,-0.03474447745304935,0.46140174767601577,
-0.13759789306385878,0.0257250727608865,-0.3528560539640263,-0.3389347383674357,-0.39551558354470956,0.15383701645740014,0.18379092741476796,0.39604457778967705,-0.37645652395323936,0.008195191778003865,
0.48775320788973675,0.22778860390392425,0.10389042146192941,0.15436666374701977,-0.14192049324070066,0.290562863764536,0.5845570062047879,0.5019537381669679,0.22229665409074262,0.4839544796370622,
0.3812592777863813,0.5054484079910095,0.25459659142465296,0.5252638603130177,-1.2697557729486428,0.4123895160819252,0.7548087811566992,0.862655048868361,0.498714759650123,0.7410230520256614,
0.6773790000250312,-0.24908647797697603,0.9102018376285581,1.2664627805375788,0.2738193710336883,-0.5004663541965557,-1.0218603438704688,-0.39759276719147024,-0.594471640837131,-0.595426917921456,
-0.7766345136519278,0.22111602634427668,0.1305933108779564,-0.025241148727159192,1.1162748803409883,-0.6923338108959074,0.8845686152386439,0.4214461829246971,-1.0883505476069237,0.040321636675314694,
-0.27036919561570905,0.4304185810402819,-0.3323864288371562,-0.6056491751739301,0.5987382071169064,-0.3008682398753211,-0.10821298345516792,-0.062269595792059124,-0.6259535278157959,-0.17514425500652075,
0.6838460320219183,0.38017475763475633,-0.009370240316213344,0.5304345226948575,0.5202113269638395,0.13180400672732684,0.3750173053374642,0.2751912352276083,0.41206012925738283,-0.22491129001285304,
0.3463575198692594,0.37059356679174776,0.16655195417459556,0.020623938021572495,0.08958430466835889,0.6301664173338125,0.39979852287078593,0.6815796463969442,0.5417906566635193,0.7161499337194541,
0.5251651342975291,0.7646302821181509,0.42052653320686056,0.25881965376820176,0.024958359281935658,0.06963285839952553,0.6958945001670513,0.33664354814672653,-0.11138227230335687,0.09524105161394052,
0.20410507616858595,0.4162673476696162,0.6294632582123222,-0.27224437749611635,0.5077083809577727,-0.11962607823154525,0.7071500603389304,0.30408574625537815,0.5185835003965631,0.16869063709360854,
0.4478385491509242,-0.05280639981165517,0.6715323677966981,0.26598780414223133,0.7611738731574533,0.6996944127098655,-0.04875113375984269,0.640214829549418,0.4518116852257071,0.28129629549707547,
0.13077452325640745,0.1191107060938344,-0.08425116402212456,0.41766693133061444,0.5382700846973181,-0.15397727460212235,0.11279750976880522,0.4545804504078314,0.4655443452773897,0.19482079612906417,
0.5909221490199742,0.7262054358365607,-0.23295880559630755,0.03408355415671946,0.2516759459675571,0.07325395263658108,0.5713210009629223,-0.037396225788299944,-0.08805215295856911,0.5880570928824542,
0.12397990364718402,0.26044560152796864,0.3628728364304922,0.43292338449277806,0.14601255007662972,-0.012045378895547191,0.348555918143366,0.4263410455811722,0.5658239503615103,-0.12160110200711108,
0.1516688725096321,0.7906098950622814,0.11675953153288411,0.366806151276381,0.7583657170256077,0.46249825845342407,0.1050129938300562,-0.09927526222929675,0.4613365981182898,0.27543713327971264,
0.07060740704098337,0.7557127180715867,0.6571001134284414,0.33972486989639344,0.17600284670727484,-0.051723526233658716,-0.20345917148053708,0.7032870556932399,0.5175977196930959,0.2838204402605645,
0.5468120317265045,0.6788890908074455,0.3276565712678935,0.43234704308274724,-0.5944279246838737,0.3997484689856421,0.11318268204529529,-0.6396104567658257,0.18448763470643204,1.2467525652223175,
-0.7513566033621469,0.8828759788432249,0.33955835438960774,0.5554700469117905,-0.47525152767528556,-0.02460312307406217,-0.686526471746436,0.7147935882484494,-0.5105193351772913,0.9655830927508234,
0.523687731799037,0.5173713523217,0.5684090549445607,0.43699507102242036,0.6182245170232419,0.2265797468332048,0.29615094731800823,0.2859615606668113,0.2674457680603893,0.47373959142659205,
0.5037850577572655,0.4065153933493238,0.530057992276925,0.43231532071524786,0.3946556543700031,0.5956181292248063,0.48217442211297495,0.563602418946647,0.2857575981461808,0.5222211558295773,
-0.19832048322732018,-0.025803632709230154,-0.3651722325517326,-0.4956589026112661,0.5045920670559086,1.050087851869937,0.3367748248488458,0.330399512986383,-0.0677192268228056,-0.3639843062389272,
0.33419863058559846,0.5399708896138146,-0.10171302558050625,0.49778981525569604,-0.2107071334218633,0.38979864174929957,-0.2246913513376355,-0.1286946621258697,0.5483741878963324,0.30849351711790063,
0.4926072490341083,0.03312371308292855,-0.25350146557148145,0.6172310702559897,0.65704316381902,0.7521529020325978,0.3458452144855162,-0.25430434616256276,0.21799089988709625,0.6362669904111772,
0.31316779137749146,0.1187765162256513,0.14602434642737772,-0.125081888461737,0.14495231319971819,0.312372660002481,0.183296156618078,0.1825706923035918,0.3870913718586157,-0.14116625937976013,
-0.4212131205554309,0.30114014721590354,0.02021152550491025,-0.017372326484105735,0.31127623764865536,0.3696594759997865,0.23800310982388442,0.07203928400789672,-0.47565754716272035,0.47515700408258305,
0.20731962279104457,0.4672571466952444,0.36732604115105094,0.3046788913010356,-0.08105774085490128,0.5454224798426043,0.3329331155526077,0.7155024044465635,0.12190044676595618,0.28495368820670786,
0.5998048857442783,0.17287066428290854,-0.2428367692413666,-0.050262702034501804,0.4979180899542449,0.6579891882343399,0.20593612783729662,0.8247595838745363,0.5136840357461833,0.4675384658460705,
0.19109301343807547,0.6796458576126924,-0.18870943790503958,0.38485378795899317,-0.2957059198599469,0.8257809901122896,-0.1289758397409209,0.6789836941703353,0.5832478152505324,0.10975609287472506,
-0.61758683196423,-0.12460700695778049,-0.4238603029688812,0.3044895798547123,0.47254297931912354,0.3945714978049112,0.16453798050410554,0.2340898348641978,-0.5405465138806302,-0.1707289013074946,
0.4804598697985454,0.07370793581789932,0.45081994554439375,0.5612915246964278,0.4317636621848954,0.4996661870469463,0.7029548645168259,0.665318504123653,0.1752481765947166,0.08628988868631449,
0.5009897189312844,0.7032911307741615,0.6529318781351096,0.6280610433023539,0.5979130033657718,0.2503864870054211,0.08961182774019394,0.18491066036177028,0.5838295244649665,-0.21140970135354836,
-1.1177887373134034,0.923382633914454,-1.157066150121569,0.9920078671764578,0.408176868327927,0.2598082432591661,-0.048102722644019484,-0.06583250970879473,-0.26794412028957443,-0.09604713332851561,
0.5722209765190004,-0.14606347528105806,0.18444379492791563,0.28516949375976003,-0.03385160736967971,-0.10066184795519598,0.3499317577686663,0.5370605091301034,0.5972601283256185,0.6574617424990228,
0.452500782402472,0.6196322801535944,0.20895320946388624,-0.05609170118916705,0.2646512580388521,0.4250133689482415,0.19829976392303442,0.16209338786482214,0.2800916974843592,0.16655580609802478,
0.07167461412310025,0.6515410591641138,-0.05631373408788498,-0.1035641158223523,0.19325685656038458,-0.07758226621038061,0.34910635233742743,0.6869238436916534,-0.01877631056575224,0.6788759192547681,
-0.17856492896054868,0.010024973869435707,0.4533841971387712,0.5298953175413585,-0.08738906095135272,0.35710682496735513,0.49662112851834284,0.4067282259801826,0.26872136027648835,0.013313803990054223,
0.36133874799162796,0.29394731268229407,0.38015592296628764,0.5197947608272424,0.7184935795523495,0.2548429241390963,0.36081595978399966,0.8262352037118111,-0.034220858923255895,0.26297869108655525,
0.07233615475494456,0.6354119958428843,-0.09497543627727201,-0.21517094229718545,0.21226900727280978,0.006975675996129506,0.09898682032048238,0.2212024084374338,-0.3681254367121387,-0.1438142329270516,
0.22242194163669968,0.3337799571645044,0.5095105264249986,0.43879239929129316,0.03338683645549015,0.1524577577654363,0.5547850059830991,0.1297909606587577,-0.24099102793292543,0.5192070441888343,
0.4398028606472128,0.5594253898227018,-0.08253603379305553,-0.2893302587623204,0.37513419904863604,0.16264435719303083,-0.12400639451780134,0.12762115130878507,0.3410392737008359,0.6686988025617482,
0.2882292255824335,-0.585269563516854,-0.6549773407599412,-0.108480957507057,-0.7177947614685429,0.05354361157619827,-0.04851625831659585,1.221846202496186,-1.0644684752156641,0.05492603714347457,
0.8863684526327859,0.7981844219633086,1.0591137420592134,0.753321731208113,-0.4688483972489258,0.569492249191558,-0.7298954647073234,0.18265867978991662,0.9534716767893934,-1.4762452526369967,
0.745691012881057,0.614982592670079,-0.10704568626616691,0.23110224747540928,0.6649383873169135,0.5294006978379445,-0.5841561850384139,0.03677578468542158,0.5889619383772691,-0.40597183069600495,
-0.38994856619338747,0.16979745572907026,0.6022014121523944,0.25131408651589004,0.667924586141013,0.898871630601819,-0.21026916295827291,0.39599461743650066,0.2486441013220368,0.34795396000330836,
-0.1032838282053477,0.47156299364180104,0.1998262679053061,0.5931617010506398,0.07773250002262967,0.07920777430439449,0.2789451963861354,0.362520097888453,0.484638863956603,0.31049087170034584,
0.36568408324105633,0.5705940125461485,0.6381995644019537,0.5031844132224752,-1.1770006064549536,0.3864761560093128,0.9024142097646012,0.23245029072423798,0.500725525812299,0.45280523136848994,
0.10747047627113947,-0.2915223848321125,0.02282614445208986,0.3358055771168011,-0.06158115214930191,-0.03590665047303197,0.07201010846648577,0.4605253375782215,0.29955930188308605,-0.10555031163924117,
0.9826238174575312,-1.2427994981498398,-1.5005941498159567,0.4768753568729075,0.3831607711035204,0.7247961163695218,0.699069938685513,0.8036988989050389,1.6439281174994431,0.849845314100964,
-0.16121364975111088,-0.027373336812758144,0.4295597500975389,0.691375794029427,0.6762855294425065,0.2670077958168421,0.2951382253810297,-0.07398869844372655,0.5337138690621224,-0.16060690503642483,
0.6815306899278143,0.7886713998540459,0.514973287963667,0.35821626630163145,-0.12261136967613241,0.2003204225472135,0.6794530102810964,0.6749337520229229,0.11858528984670619,0.7318109422496863,
-0.07893005630323727,0.48724796295031764,0.4533476740064176,0.441493203957879,-0.14651373602124107,0.48669382883290957,0.2740535359585227,0.006779831037198428,-0.08637954453904169,0.41609686797461426,
-0.07314335200809866,0.6498679851361663,0.3633583185025131,-0.047279454511754325,0.469658978676334,0.37379974741332994,0.6743426592347009,-0.5584740386316454,0.45832470182033164,0.2675937111181357,
0.6899270567218229,0.5097306395608959,-0.19891175149284374,0.256010619845384,0.4192640547692322,0.10633573873928379,0.24827213422048341,0.09523747549321912,-0.25586110278353086,0.151648059960946,
0.46206402738447655,0.12794673845442667,0.38064741159900894,0.006905356645376371,-0.1890531864107367,0.026278261834316592,0.6120759878761656,0.06575452516490607,0.47591545995741363,0.5037637717012615,
0.16947695512538044,0.2035879142414369,0.37738290624708704,0.627762566335039,0.4491864614658336,0.24008221330439133,0.050876343840492694,0.46140139098114435,0.022259803859011044,-0.22375540931535554,
-0.10749543518808345,0.26135522051173493,-0.10293349384315575,0.5929044907081688,0.417807079749446,0.7199063752286716,0.03687550881728537,0.6365545044426866,0.31097318415835645,0.10533450272642067,
0.609778562953407,0.5512690461599353,0.6089258300865755,0.315101048869555,0.5141137581085831,0.0658253491312924,0.6589549053953673,0.5108257749669691,0.282481684773674,0.3054011316226456,
-0.7762519608746534,-0.38709094658507226,0.4063322644534369,-0.4364151088732017,-0.6293589733983642,-0.21597397848804,0.3008501946162249,-0.39752658524158174,-0.6141838515097584,-0.49794201842109487,
0.3244292256534433,0.007003792886119005,-0.10214753660068009,0.6191325491224933,0.4570469384959927,0.553364709770145,-0.019394477835449692,0.6330467688357989,0.2875721751684222,0.03528496546543155,
-0.27654965753218663,0.8598999664148407,-0.18430390638912617,-0.46209213857368703,-0.2444059383206117,0.5152687440242496,-0.05664730521514835,-0.08882741472169614,-0.2876560532805721,0.26013821350433003,
0.250009269421894,0.21117884286840782,0.6584236705623773,0.5605886713493449,0.3875675108172761,0.23774403009167683,0.39306105648754747,0.4290142439311287,0.32225544519615906,0.45775289899456106,
-0.12945347730629106,0.12107986508949828,0.5068948051758032,-0.21976819885516682,0.6516937635737358,0.43906297227771823,0.11103642723057315,0.20243362338050075,0.203953883652924,0.6252026467580161,
0.13396640920753553,0.6442626665922525,0.6380703852237151,0.08095858309433514,-0.517513710394457,-0.46231475913927833,0.7756740197350064,0.7689203774432996,0.2503426865361773,0.5273551201989576,
-0.1300974498134546,0.7968055129444523,0.6646231842064653,0.5995640632030559,0.38818664431785715,-0.10128800968007037,0.6309474994299619,0.5173863962265,0.34339027764912305,-0.20473828135756045,
0.39282312387391255,-0.8670569961112901,-0.013069932007754827,0.6255703690110264,-0.051803098567723097,0.24675765622301846,0.4313725906942088,0.06960592977599198,0.14876858735026777,0.2976537197548528,
-0.9788670955460103,0.7644738544328259,0.8404695373906654,0.5143742002699145,0.6625019137454492,-0.09489610447090262,0.8771502553151475,-0.44465584933718244,0.7105706519921492,1.0778458076951976,
0.6870278187446958,0.3963830518380091,0.37889767641099004,0.5894498434091207,0.5996931252244895,0.41215619741875664,0.5893742353652461,0.44725453875256455,0.1353633251296224,0.4136106908631063,
0.37107373540058725,0.793616788148236,0.5278153525606312,0.4843833416633617,0.6264521065928408,-0.009944799763412969,0.5430366605504845,0.05354374660358782,0.3685676092384745,0.40025611200861144,
0.6112284816035453,0.36670397438138097,0.6107149937055816,0.4952327845671818,0.11349792800586915,0.2390738344264457,-0.03394807253306005,0.42783842903366226,-0.1592452901993609,0.14565462711131993,
0.123446237511676,-0.07085992867648953,0.6881498531239906,-0.254980420236002,0.42139000577014646,-0.20855140448299636,0.1514470030641296,0.0019286005642117632,0.2064546372523614,-0.05181173465665221,
0.26048308285226923,0.39960972123791155,0.5811785173083858,0.48354886006418796,0.4524311589577353,0.4559530405138188,0.009219061180679429,0.22555128800017216,0.36294581879865256,0.11418302925276515,
0.5504297937119601,-0.12223584208794529,-0.09936233018794556,0.08376149821220082,0.35733316054025027,0.6314557505959425,-0.015335517970009377,0.48983723604716606,0.5340308614163287,0.5707672488432933,
-0.036046855567228336,0.7997614881750144,-0.7675615484723456,-0.7795773937573804,0.9158761668900416,0.9776547400738702,-0.6188032094892415,1.0034143525389823,1.0425574157352835,0.6477463478578849,
-0.5258327134173905,0.7528904361808204,-0.38924005429697855,-0.1327526480508383,-0.28983546880466143,-0.17427789599800306,-0.3388248703314172,0.894306848353399,-0.8160593878192396,0.45104007956672226,
0.25676277736841707,0.14945595041813553,-0.24186704787916502,0.5244074744218215,-0.09667653737727756,0.04736187907270992,0.5707711008227406,0.01454714276024457,0.006428145332102883,0.31599691261258245,
-0.19577279515908072,-0.06304289255057369,0.041295476798227586,0.4421847608259301,-0.2809344800949386,0.5755187191143093,-0.13379636112130325,0.2980993010828595,0.43411178694975067,0.028092252212549598,
-0.05485099118523599,0.028693519713933222,0.5201711739107712,-0.07060554115480809,-0.10313526200980246,0.8122238139426748,0.0028215506502813985,0.530255520350383,0.5160630188311358,0.6228858997900251,
-0.018012105952431606,0.4741544201626476,0.06842872325364069,0.38138194354694416,0.4206280769194947,-0.04734108559566358,0.6713690604386237,-0.1145900897540911,0.012371811588978337,0.17016272518273146,
0.7241493959644961,0.898276306955749,0.7695063357447771,0.4397339418720981,-1.4975449648680392,-0.44957972176172367,1.2310572101108936,-0.2601700231566085,-0.41280417191538027,0.9595351503769425,
0.3494003233781712,0.07936200112341728,-0.6655328161169405,0.6009212256104395,-1.7156365992014357,-0.18888847952695625,1.014247881840051,0.8655189489936936,0.48956254898332785,1.4745297504890398,
-0.6141580178487833,1.0410555653801428,0.5259223141786988,-0.29610737937766896,-0.25305121831127225,0.005413799563252368,0.412567902064088,-0.051034420999625685,-0.8183147298023569,0.05940251261580785,
-0.18550766946636038,0.7497343520592693,-0.41185742979347867,0.2884667462052238,0.22306293046433076,-0.13868409419877376,-0.07318052604281773,-0.49628652841009935,-0.6941928022616066,-0.24269406057412507,
0.40329767345245465,0.5866069477024839,0.6262875658095431,0.4451102516639808,0.6620773744563719,-0.02360675489231776,0.22766629984552925,0.045981169793091255,0.5051347321535689,0.08308750116225222,
-0.1042347624148938,0.5238926685861832,0.5195265162846437,0.653999945714705,0.18784887810670653,0.05687626265678189,0.4276566430740894,-0.1245020950823939,0.17480609866507701,0.3384613823945489,
-0.1391524922768925,0.14873867029770832,0.648878055684606,0.3413946713095836,0.6148850366001637,-0.024082322502892956,-0.1014133169687308,0.3400949062915121,0.18717781252954396,0.14927643560307474,
0.607907300807594,0.3907223920871615,0.6296730437734729,0.3370611341292045,0.7686583088995813,0.26222021223989767,0.21694406936062174,0.20194016362884226,-0.21427658895698587,0.6982379100684404,
-0.08027362784053302,-0.39997417136733926,-0.03554199677893762,-0.6066776475079647,0.2167445541713201,0.8773383078419155,-0.5897322556556744,0.8863081472061861,-0.2294364256221487,-0.2862234776963009,
-0.032082607891186346,0.703945971254693,-0.01332262845818628,0.15584178081041342,0.025898884408045553,-0.13145425779632058,0.45145837348238554,0.10294922384497684,0.010237363587685011,0.42423926328314265,
-0.5128137974404787,0.29288861015621337,-0.31767237529957754,-0.4731924263709565,-0.7123669651636381,-0.44438549246287373,1.07598105820957,-0.19607889278712476,-0.611751355282636,-0.3962626976319848,
0.32865540952848354,0.26731547472731715,0.3003711700814983,-0.31453811285642036,0.43699452956352774,0.17262938296654912,0.11355744974767633,0.26229454137449765,0.5813703088790676,0.20828181710318205,
-0.03455817064262375,-0.966422606853052,0.7632533581542987,0.5841509792013173,0.8209059850918998,0.7768687482705144,0.6361245870872719,-0.7040015534473187,0.9689120307021986,-0.02609212453939711,
0.024916556065122338,0.5379667518726029,-0.2486525275511033,-0.21939097950413025,0.2266777139837046,-0.20203592952321509,-0.05773773702633041,-0.1936691106849341,0.46213180598944364,-0.26630302396552563,
-0.03624428336316101,-0.20272566407417764,-0.036503935543422635,-0.04491007710710416,0.42192056874525957,0.687653106996961,0.13424359488157475,0.0861511979184334,0.47704670916128794,-0.27413139621558713,
0.6052374589884516,0.8036899424349292,-0.17872666402727344,0.6386415155483389,0.3220326478028533,0.6430782958182116,0.4871129672884073,0.22172979732985787,0.4869610161432872,0.39512510305286375,
-0.7925631647012503,0.24416599147805138,-0.6655349739793619,-0.9313148992196468,0.2797131984275063,0.6450947821506972,-0.407926838356358,-0.13431633223939138,-0.07529413137288403,-0.04383774083611016,
0.4252191371804362,-0.15234113274351463,-0.08688893361676982,0.3595452923737585,0.4745859125594647,0.17468575464731087,0.48503379196759727,0.5422475802691484,-0.18143581400830328,0.5181540345713984,
0.049363335304162925,-0.4768428077454643,-0.23856427231058228,0.07223341684111223,0.27409808355992193,0.6478969056704411,-0.20544479907310167,-0.3090005752982607,-0.64328009666913,-0.7036570895418283,
0.526780596395701,-0.061627697324532105,0.20595286380743233,0.05917653527802462,0.09884453187984708,0.2951038445911547,0.08252259413345092,0.2448768207897406,0.4572345039291021,-0.06500581190831867,
0.21359645812673198,0.2792231772108984,0.026761900275853647,-0.22238865036631983,0.21537746862544668,0.04376249420399433,0.4011823213685582,-0.2878593430879384,-0.4965100134885887,-0.3662002031681974,
-0.22389684310526883,0.2854804342398387,-0.0967826629568654,0.0638780243967171,-0.19904828073979902,0.2594015995046021,0.5538300538413234,0.821776370420407,-0.5707456457291459,0.1283984744986899,
0.3191360729330623,0.37532082745577605,0.32970982899152457,-0.01978066608671483,0.3525264756824202,-0.1579593653082768,0.3759083785845709,-0.12349728140032706,0.4040873031278653,0.2765405110894926,
0.01809004323859252,2.862438907604468E-4,0.5567363061224101,0.5565739205839131,0.0038165277418406363,0.5939036807115446,0.32089003814317757,0.0628043548653901,0.6006181491031737,-0.08294797661685668,
0.430074676588771,-0.1121215971701549,0.24835026238469196,0.6428462169708382,0.6535797394519727,0.1252065316666049,0.6441008198301487,0.2198719956774532,-0.05573271951264354,0.14972732172381192,
0.07021282305058921,-0.25647042949760285,0.6881648827238837,0.1880574731889089,0.17441003874236438,0.0856677650268585,0.3515736094052428,0.2653745260740264,-0.14501159699692828,-0.025868028949079448,
0.5572522215705754,-0.15864811680558133,0.403241428246781,0.3591269395292675,0.13562579271501507,0.8259566199948779,0.5547505325585983,0.01876201082963935,0.36880781912135036,0.3850347527295044,
0.5848474844065247,-0.12631181734577795,0.6022626989619887,0.3002226987914322,-0.08770103721581708,0.31352865248206296,0.3071428125357733,0.6516204529947954,0.10581005421003503,0.4657252054312321,
-0.618550908274752,-0.16429981968049756,0.005228222310100298,0.1852068068073126,0.7927962372679733,0.9005547205588382,-0.6405018191444264,0.0873920667149432,-0.27122010906466676,-0.7040812739479057,
0.34089284400616676,0.3487282544423314,0.5127794406589111,0.3830061846482753,0.006921700004370766,0.7240471359643451,-0.03936844736853844,0.3195260079911008,0.15671723017982697,0.10666828570082698,
0.5014341722513855,0.6595745892096451,0.2555766773282947,0.10966286426834333,0.09682354720763513,0.11544432578735311,0.31904787116061545,0.27722422079285075,0.5946645582829191,0.29962069877112474,
0.21662272774195654,0.3055029523461856,0.6985203839520114,0.5117081561487407,-0.0584490609734363,-0.08206911268847947,0.32695591629385273,0.4801765318757782,0.4503452381071756,0.3625586653816163,
0.5061013985432463,-0.36871911832345355,-0.07197283258895276,0.5767758075373635,0.6407655006545722,0.633389960553847,0.19245284937077245,0.486196972902073,0.3091778252243093,0.6881352558916226,
0.20003147918644562,0.40666044011491526,0.23007966389238288,0.10207817668203241,0.5010167572873542,0.7553879161505191,0.2789707250046362,0.22217750801171487,0.6251886161252511,-0.02553074392126189,
-1.2549071560047753,0.884985804615335,1.6617736112508725,1.1836756608768915,0.5375955762117502,-2.795475025810716,-1.5687484158667178,0.24393855301654505,0.14430078991393447,1.1445191340659515,
0.4768011251710198,0.2915546197553673,-0.2495073412303505,0.472129704169671,0.14066026684572108,0.47067897485729215,0.42987644460590785,0.2727385937444556,0.08360179126116785,0.027385989604326182,
-0.013135843399927977,0.40518072476494355,-0.22909461234631054,0.4123689792172867,0.7231903778104949,-0.03083538126685479,0.7227683077047004,0.371089269013456,0.39123094932570507,0.16671146508039414,
0.6936922629884402,0.49667771159291746,0.3894094036656449,-0.18206094798828645,0.42613115592290135,0.1714410946445975,0.42941149651846805,0.6967681155307747,0.5223558702874753,-0.10342247941754207,
1.1484183643749204,1.3287987830339452,0.47531157250575146,0.6151313184193681,-1.7961771933743078,0.7911691821395014,0.8893514659238699,-1.6266138662423566,2.03429384961769,-2.2826467458403177,
0.3235752063830479,-0.09408614985550297,0.6280145750578449,0.15182667812138015,0.3152805380680184,0.6004440981085187,0.7478149037220206,-0.1311585272874714,0.41305377537874827,0.25930814615294695,
0.21406610899572107,0.25911067443858865,0.07965613146463649,0.6280211757556429,-0.08827416622643454,-0.16142698747831374,0.39776932385352143,0.32026230043295906,0.5401489034325717,-0.095657256560151,
-0.23641387107790465,0.4097454229543011,0.11338655141857062,0.6185115311054303,0.3101206401462217,0.6612671088222325,0.5406934143937127,0.7818160922159137,0.4558122175720673,0.5944851178174488,
0.1330717273267428,0.16653441935758834,0.1688282805313473,0.4415614299657145,0.27630550552782834,0.26753381251067665,0.016941384357547162,0.5762948936045188,0.490682717542061,-0.1752895574991271,
-0.087041694254119,0.02775813660707015,-0.19255738326833993,-0.28837938526150847,-0.14328250980494384,0.7868119429936552,0.6226879365657544,-0.2795312015956975,0.6544741878653331,0.037833720326819816,
0.20001669111890882,-0.07760088913605621,-0.02218795366644716,0.5157663678962642,0.4296027690822228,0.24139769146244267,0.033868313442073174,0.5231662757533552,0.08040893154518405,-0.05324557880728684,
0.6266800091905486,0.6154084948203752,-0.17913383546749928,0.041379659899705205,-0.08573893098960776,0.6657105789739036,0.26237915044071264,0.16588011376368456,0.4300310681138427,0.2957378818750085,
-0.19668715887532975,0.642470496211247,0.14305183571313812,0.5921680175238625,0.6092465685665696,0.7034789113925598,-0.031035954202541422,0.6663358971129412,0.4047465531169082,0.49368912526315584,
0.6206855062665609,0.6421882178358217,0.43685313526076563,0.2053127749441989,0.38334101833107176,0.584062450673395,0.04661737656762821,0.1457653050844786,0.41833641310344766,0.518828992702929,
0.4146770945548132,-0.05297054518382134,0.18008613148256775,-0.04620614127335661,0.04771777253238155,0.2577211137865888,-0.14693158342270904,-0.15273715034001445,-0.07982610108085306,0.32526540127783665,
0.09301740470613748,0.21316867993171568,0.14515410377625348,0.32397141795206535,-0.1829002421707232,0.24054713297984204,0.44446595145829776,0.002254972075595515,0.4160850926418889,-0.20669825256238267,
0.3778477641517753,-0.3182989959753549,0.5183192884805925,0.26242997362068404,0.6156397410079533,0.30046485338827866,-0.02127568048910138,0.5422323223150393,0.37017417515434164,-0.4410643139248265,
0.06791627911760496,0.02948907427497827,0.5314222637170065,0.6759064448873668,0.7396695509366846,0.770608170734789,0.32374531625243247,-0.1290510151115098,0.06818705229508064,0.10416870874924865,
0.5105141274942935,0.42894150644120854,0.6280124821947579,0.43967450400961733,0.5654662477403855,0.7022050538768415,0.1989371871334137,-0.18212027260245245,0.11732791616769694,0.2601067890506551,
-0.25278536967243803,0.5211614153481586,0.19751224838389017,-0.001519478982345754,0.4541680026014568,-0.04983007805529402,-0.23429662186378927,0.2578482719234215,-0.5418577541281631,-0.36342282408630566,
-1.4279002516619896,1.461875717697667,-1.6850058468371552,0.7676959571275057,-0.3566478897297855,0.7226251490688468,-0.8026980924827163,-0.6672946571721371,1.127824067155169,0.3429559857592259,
0.6006977405766015,0.7623210521793086,0.24774544875472995,0.6123235209357077,0.1988770979181932,0.779679297620389,0.7166669694807262,-0.002203210208802615,0.2340664789437804,-0.05623835805754389,
-0.34858736720131234,0.8032794456255242,0.49516039015190977,-0.001370403202180623,0.44358339950800335,0.5117516280104581,-0.44808518268162756,0.8103940376710531,-0.3794826017110804,0.005951085431309159,
0.4461986004858289,0.3579923886942323,0.2689595042829447,0.20993293970250257,0.40174465459551406,0.25453697523990426,-0.15821258716747152,0.6460218086484218,0.07158019770279277,-0.12262761050095208,
-0.539826823104495,0.050776607075735426,-0.2314703210385633,0.42218288350374905,0.1269713207194535,-0.09400020436016063,0.6602152481375435,0.019273404736156085,0.13146200805139857,-0.23413075278185153,
0.8026483201868561,0.3447249150000608,0.4373975723476125,-0.531770444487843,0.1345225936388301,0.9227777000562607,1.1353954645756614,-0.46537131174757906,-0.520943361882486,-0.7925411981759461,
0.04573377364562961,0.3535421681327804,-0.022420346142529492,0.06758891584104713,0.7564567486852879,0.5243685258905035,0.6746190074288119,0.8391485297785787,-0.40457143349376123,-0.3611401300176626,
0.10777203083999924,0.43756872591495494,0.443303518862476,-0.03156042663599756,-0.027701933852910858,0.0702852657948517,0.30246082797311785,-0.2137868638345553,0.07438913023194352,0.22540036043481038,
-0.07269012648050518,-0.4262097092302592,-0.2018023750411379,0.4270055430433985,0.349843117498519,0.22859480529033288,0.05719437869152993,-0.36118862694255144,0.14026968506355542,0.7080676542610298,
-0.19954595399364577,1.5359996927085497,-0.5577302948305578,0.10841656181358605,0.5802601980807437,-0.6093535701633668,-0.5040978023280486,-0.19861024454295076,-0.9783419247357525,-0.37401933157455824,
0.926630535787694,0.9728515659193868,-0.4477921308502894,-0.5990242131764419,-0.38060798036750204,-0.5799414827173676,-0.42711193643786083,-0.44249714395091305,-0.6352910983326678,-0.23838651512595138,
-0.13076727523180634,-0.20350782137163426,0.5566852267489458,0.23926570374798506,0.5361500973017175,0.43470922849036076,0.6467076005395044,-0.16215873907463985,0.07576748343026976,0.184475228205411,
0.5031794354772725,0.5025289840185487,-0.10346965068945209,0.6314053991425466,0.1969854029278457,0.7976253972966341,-0.1384473003109686,0.5114010940408162,0.35519258501776185,0.12034584112929439,
0.3070206673221361,0.22675093042502145,0.5345716550703645,-0.24297110831223045,0.7650224086551618,0.7610331162295834,-0.11656583859767328,0.3163271477490081,0.2845028649721634,0.4771950291307533,
0.5876972882527766,0.019412750235027653,0.6911249397455578,0.2345944033688466,0.016138939977837448,0.02940502168161573,0.37174858725751797,0.3316343617212027,-0.17934190689459217,-0.008372396334093039,
0.40182980565316134,0.1274176083984102,-0.12195848801404355,0.6622535244167258,0.7494734644193926,0.014911377024842755,0.5396210951377584,0.7277401610253039,-0.0623478259259886,0.04573413421074208,
0.08293415981900772,-0.17075284522405018,-0.6267742175383404,-0.6074326774260171,-0.47930961897552077,0.7532655315551193,-0.4409197218047716,1.0578439231316659,-0.4813716304881175,-0.22515860353389117,
-0.09801261253430227,0.9795514350083732,-0.47335928172726344,0.6370054264696599,-0.39593480373928985,0.6261275679151818,0.44359520557598525,0.2564347927706438,-0.64411318454793,-0.1870176381965235,
0.5745167044129283,0.7305702220989266,0.09413253558880334,0.6827749940630239,0.42739447866107344,-0.14929479170665627,0.25793897556169415,0.363369121122779,0.10588311877832518,0.6228466433762039,
-0.15976313214121476,0.07991434138253119,0.33894518672500673,0.3875602817257147,0.3091712080200561,0.4185376725877167,-0.07106834718094508,0.25656909523631305,0.6032366478877036,0.6977712934854847,
0.19456940418779564,0.5742843275482469,-0.03273642221552831,0.5425912003179791,-0.19886773360888205,0.5580736318558622,0.048034940699283366,0.5121699355344016,0.44524876627387483,0.3222073909191727,
-0.20390215894892952,0.3853680091973763,0.42397169448787,0.06610026488429882,0.11226655668123328,0.5710391096138715,0.630447690465977,0.4330376049097154,0.22136180633480707,-0.01920133158064234,
0.06101026939045662,0.7492472252405277,0.14208423057054745,-0.13261323198330874,-0.16685446834430445,0.6611420139547863,0.632703295724061,0.32987151039861967,-0.4192735862916491,-0.08738310026755233,
-0.06734750831697534,0.2197607737853825,0.659209335244786,-0.011057809729377248,0.05893962724912849,0.21990277783047324,-0.07092220145300784,-0.2372091460238468,0.46019158008027844,-0.11965827542955562,
0.26757588649992464,-0.7260765233371608,0.3094150098627646,0.21373417295209968,-0.06358343576474783,0.5610411444561286,0.6063202297474938,0.6102429390297107,0.2518154052269934,0.37674192035163306,
-0.21220566587231526,0.7318687877702591,-0.6582952751840059,-0.504955232847743,-0.43452366066097203,-0.47071375026685836,0.7802221841731083,-0.19190677482566112,-0.6773940483770171,-0.30692012088203463,
-0.17597372264714953,0.315210175884829,0.2969182907855212,-0.30161188092362956,-0.17006273206702044,0.2884350361347707,0.4175730369242089,0.2091679196845757,-0.4480458395274868,-0.33475664273276556,
0.1653304186338164,0.5787259398315164,0.15372514205884624,0.4557548336189539,0.5940036606268322,-0.060201540438953295,0.7438253926347115,0.520153302872156,0.32587208544724505,0.5396743366149166,
0.7023529156144666,0.7653567538343874,-0.06476291901000694,0.5345274565141364,0.7581702446820957,0.213702507873556,0.05819141061864936,-0.2401613868730939,-0.06737829817910929,0.2271172396755579,
0.5087469572959497,-0.11816826886394673,0.31902396668810507,-0.20520980957804627,0.5724007542054281,0.1305610163878239,0.7112691513011694,0.6711862828513419,-0.02162872721411927,0.2219163995890439,
-0.6833388615959808,1.4654403488065018,-0.18691658115920162,-0.04346715194055962,1.0577331119743492,0.5028862222776415,0.19507310937301983,-0.6919175547646393,-0.5101350664173122,-0.762579773499827,
-0.008965309723913637,0.35124890367284906,0.15801287222776006,0.6618131225428199,-0.16630202127414967,0.5925412876721211,0.684802243225925,-0.09693944735755522,0.2304436457256242,0.7129079414135393,
0.39926183808304233,0.26081875785561753,-0.02303451285142744,0.3812648929740596,0.541340275097526,0.30647337840188194,0.18154218039038686,0.23795332926282736,0.18670025018432185,0.024619437319852815,
0.3968858711172858,0.6477994876893691,0.6371060135190652,0.014530803941641274,-0.5943279595280575,0.8111475294230814,-0.24004204488139647,-0.5119140991070686,0.2827761821846355,0.5153548115496089,
0.5704775827172592,0.3250567400701104,0.14152148277117865,0.10243709085879944,0.6513145715559281,0.29560797273657885,0.4282519475657039,0.056078323953289384,-0.20804810652398903,0.6636225148506045,
0.23076078913806639,0.5694357822946522,0.6847039771025324,0.17947111795579,0.06954134183829103,-0.0804549578912689,0.13523672350636085,-0.32181215793642054,-0.005009788418304351,-2.3400167511846651E-4,
-0.2570127215130566,0.42131413392962985,0.42679196438861555,0.5707524256159441,-9.184759686710341E-5,0.08717001706740785,0.5873346780054013,0.6785068635134235,0.012481311074114642,0.5203450148387787,
0.08828427720000379,-0.07758547147951421,0.558426022833996,0.5460568015998831,0.7524166534000807,0.5534778363866982,0.4277170714810735,-0.1265001413962152,-0.11487762810559958,0.6600942561536534,
0.3872480003424331,0.7436555435384667,0.5101924692208344,0.3215440655739924,-0.07777960668795028,-0.16217107665485272,0.7226817354774704,0.5557651988869687,-0.16470595268322108,0.6320640530467021,
-0.25558919128011687,0.7371832865791993,0.10220759963695876,-0.25362920580016235,-0.07440061419678982,-0.07691503333738847,-0.2171288999083215,0.22112165562975133,0.5436118983886262,0.41510138466189395,
0.40984462895056945,0.32052609411991473,0.36590115474423696,0.7042055459076757,0.10574430924194544,0.5837434271547829,0.7560732420017079,-0.2954121604457671,-0.059667046894878895,0.7639709438047032,
0.36892456683254155,0.6696438875290638,-0.1333773643515622,-0.25005428078811864,0.33070247780460077,0.32552036642759624,-0.3193062644124339,-0.21415287029366192,-0.40519082987597954,-0.21286724423004233,
0.30761428181339445,0.6974976874740118,-0.2262756783835536,0.4865534854839024,0.27784326328713355,0.9069672578682878,-0.8628515078857615,0.1229706426129664,0.483032315249028,0.3522794463461493,
-0.4810179591137984,0.38127859569327854,-0.5975624406535843,0.8116754241198365,-0.4741535052336574,-0.5386507753648995,-0.3257920178098799,0.960503954568188,-0.8182945899545087,-0.9018707640512897,
-0.24869546580388865,0.015110610939521114,0.383513361428667,0.6206053799295741,0.6994722553287034,0.4910860079489518,0.08340046362061357,0.3533492651144699,0.2120704774007482,-0.1356149543117283,
1.575315692293639,-0.4302453741094915,-1.0410405932192583,-0.8934070784332219,0.35855787658157534,-0.7273276941789323,-0.4404711605791185,-0.2551830437729157,-1.0286415418128625,0.6563597389698396,
0.003143843857432331,0.13967979800558739,0.6441586572349405,0.33279039232302216,-0.08417888631075718,0.128909519081951,0.5671008752475636,0.5086739110864331,-0.08895253073149659,0.6313102338218818,
0.033757210829794645,0.8242347136617693,0.26193174038745376,0.011800531673376819,-0.11454100390545575,0.32494416631386397,0.46592007455520296,0.09954172966573399,-0.6283386091376663,0.23973241890634345,
0.6002626695600765,0.6507777082058052,0.3493435311941706,-0.01750643415815847,0.20055822803346862,-0.07648604316769456,0.5490646542726082,0.4029096847791635,0.04018492147190619,-0.036312829578602865,
-0.034126409251711974,-0.05080356834829486,-0.3496047334349079,-0.3454865725629328,-0.3674392036509926,0.31255081534807727,-0.3496002096918821,0.19478188170264668,-0.32163848933660033,-0.36440682897705606,
0.6219252595133219,0.4835315496787034,-0.16819463889143707,0.13407311554067183,-0.025745862030224387,0.4036619781346722,0.087382209908855,0.5678644924487151,0.08297704434745862,0.58997213142671,
0.611057706990254,-0.10239131703600561,0.47775955266196424,0.6178163866928125,0.6043538866401474,0.4377114591779725,0.3189063618949228,-0.041772378907665574,-0.11385504376519373,0.07191256685203515,
0.5516191737127422,0.21993288949264783,0.2285310279169087,0.030348259421032555,-0.11536145605687682,0.5853880964365167,0.6028149750979449,0.8199715312760413,0.4209984694378139,0.09403686957875676,
0.1081490861235888,0.24947465843186928,0.6732214909673851,0.5807820363929954,0.6508842338583131,0.5387471955811698,0.10116012117483662,-0.5113329056875031,0.15626991513934463,0.14925266995674086,
0.6554046363262837,0.3798300325327808,-0.4448331684374061,0.3197736502608626,0.20578324116883567,0.2777942267392466,0.4700900904451569,-0.048094422969248346,-0.09639160291324261,0.6073104159636147,
0.5603339743009412,-0.34381131225115574,0.6050774683659198,0.2516871386635331,0.5850557305755628,0.6154734617394956,0.2221808000576676,0.5496393771270219,0.32941558537707877,0.2024426665984485,
0.4119215443181723,0.5830839926510082,-0.09061873775042689,-0.09160387201488195,0.44177883340241914,0.6689621086517863,0.11717747107496593,0.3738103423009649,0.2823371038442739,0.2578582451268024,
-0.11761844260561494,0.21144777579706042,0.306358884097755,-0.5134962880793207,0.2557281753453027,0.7086915592454728,-5.342836517443386E-4,-0.1344298337133335,-0.33796736516060577,0.6766769159723978,
0.6302366902161536,-0.7907550321042094,0.41706365341568485,0.6402032074941625,0.7362951912925245,0.5215913710653296,0.5205524057629032,0.4280753539195887,0.39833063389694434,0.27602041905306685,
-0.8393562480828057,0.3965344039251881,0.9751200104936544,-0.02375613129997277,-1.025165203052083,0.11387762247021191,-1.7454480166049666,-0.4718789000856802,1.2550052997863557,1.2707135198070358,
0.028604008302221935,-0.30790253765561826,0.01660261956877835,-1.0273480050654504,0.07124673005321973,0.547672168339597,-0.07354652114711245,0.5557962264408525,0.4558452932902213,0.47091397213800357,
-0.49337363830179587,0.17624188737685959,-0.6264220917334855,-0.5649781970248211,0.44766594632584766,1.6100505087776606,-0.551105505530887,-0.25311389704528453,-0.01320071640608325,-0.17146815289540324,
-0.6158867456976964,-0.42500876739504434,-0.3166734322504776,-0.6874469691232289,1.2333236868183635,-0.5259921980669291,0.2231779908156306,-1.2383741871772609,-1.228755269465637,1.6056821772970484,
-0.16909786344432168,0.023960973943544288,-0.28607593354229494,-0.3049546213087041,0.09387093951490309,0.4507572076857194,-0.4340668649118198,-0.006433462219298321,-0.3717098004087821,0.154808692831575,
-0.030834276917135292,0.6269478749882765,-0.3528026721866528,-0.21354875684038158,0.6048640293296262,0.592846248898824,0.03582440412453258,0.794209564000739,-0.29270134249505686,0.287890591506563,
1.400857178823626,-0.5559935689847263,1.9139497980293294,2.0065453462113787,-0.013735103593722667,-1.491275327834664,-1.0394089484732953,0.6291285971060955,-0.6822525487357469,-0.49046683034911764,
0.3256107226455953,-0.793509104092247,0.2119531821305258,0.6506110554203292,0.6059035809694784,0.885484880607753,0.264174984738398,0.8634570860149977,0.5553642885932636,0.6259295806066605,
0.33303663991730753,0.45279276181325206,0.22618811864244887,0.5091560430880929,0.5503919063146419,0.7182684321116292,0.7483883229320117,0.7936595941101452,0.10884762205341275,-0.09856409700257446,
-0.9870049039518025,0.3181065205810385,-1.0654443183464812,1.0156681960640932,-0.502340908891687,0.37146484464856905,-0.9468229002172922,0.687092685100301,-0.7424898847544131,-0.4252158573399751,
0.24691470977712415,0.39707814808428904,0.3339058086029183,0.20764063230171323,0.6422567779693273,0.15767698227337618,0.4202956847399509,0.1150588285305145,0.06609358087498093,0.12713041281037046,
0.4323304791223666,-0.12496740072353944,0.6928676457750366,0.1873628639876929,0.47134785197015006,0.04923828624626085,0.14625547305872968,0.5546256520639258,0.10633038894037275,0.43774643069746033,
0.620417851631898,0.13144853271233584,0.3642249438350589,0.12386725891357649,0.5536931198625219,0.2768869628521653,0.30485139080361917,0.3000842026994836,0.32148497988689556,0.1630152767500127,
0.05400551555891966,-0.10344797407857954,0.26331000888413536,-0.31413841074728593,-0.2330292363718025,-0.11123385052496176,0.12715662171116215,-0.10400944676675866,0.2109969879833246,0.10194836120120596,
0.3050285147773177,0.6014103528454061,0.27532009044768124,-0.19220907888676383,0.39211825997093847,0.22014645480079081,0.6840397652874445,0.3778577011232725,0.5363953656593112,0.3188837866514316,
0.5725954277198143,0.19754356530209805,0.22195088645181876,0.5165644033320395,0.3830518665854327,0.2470957049102119,0.7442938490578334,0.39300779108541767,-0.18857785153894502,0.18787792450695828,
-0.11179889732021872,-0.1848798977116655,0.09671273672137146,0.014576676806595353,0.706440884991565,0.29012241109368964,-0.2846967426348834,-0.1610992070815023,-0.42711430958375274,-0.1354840923240043,
0.01974765217279993,-0.07999270462415066,0.5765969839100723,0.539614686813245,0.4937982105241593,-0.05531015813677718,0.24194610972694972,-0.028469244625685057,0.609180133501765,0.5955099156305115,
0.40017070600675003,0.5141281731357813,0.6356837096835678,0.46580040835342423,0.5636334276728772,0.7551857652172748,-0.20906651469836388,0.5740930303537871,0.5772481870377648,-0.23097965274264526,
-0.5865950212928037,0.5194727266843312,-0.6495193598706268,0.13129307676209986,-0.28702511839874256,0.6710908217875597,-0.5650852011586187,0.3772650476066239,-0.27452792099347767,-0.2619663776999752,
0.06359461043809574,0.115835744340592,0.4297689092502647,0.18928472864971438,0.46626361883376377,0.45008901330569695,0.629830798777687,0.4561776946306216,0.059419435832748224,-0.19825721339214802,
-0.5428353235663235,-0.2649663618372076,-0.18354278105468166,-0.3925537752159779,-0.737078540102433,0.16763763946540297,-0.267983536144004,-0.07681861629035115,-0.5269228871245489,0.290836414937271,
0.4434649265779575,0.6216540515582402,0.9492745218520485,0.4463080957956741,0.8747337556018931,-1.025248642164015,-1.2291418265912046,0.3777374712501215,0.7544959830897631,0.7514531902319654,
-0.9439962905544629,1.107419844750349,-0.25084784831156787,-0.7691251112494344,0.9351402688213164,-1.718927915954871,1.4352811960569627,1.0854834498107309,2.0334178558923233,0.7284710588614814,
0.20908297093147601,0.11687294719352,-0.09448671802277893,0.2552713572066173,0.5381118190009837,0.6869910203532382,0.2296946833813143,0.22915563879454282,0.5896237481179927,-0.18318419001221814,
-0.018212216633722203,0.2636797497039593,0.4241860821290545,0.4549339251107694,0.16675204754630468,0.7667743261773871,-0.23100428754722593,0.09846350291247294,0.2930993329616402,0.18731891181943056,
0.0538796246720043,-0.09753299987597118,-0.2500703687013984,-0.33515975164568423,0.5109655019650309,0.5322114128446629,-0.2286225535492208,0.6779371485203812,-0.3783065902825824,-0.07224345248050368,
-0.7559712036459552,0.708188792451647,0.9353317456869383,-0.7093060595821417,0.8991837635778669,-1.3939946464795696,1.0813881069272693,0.8224960196767479,1.6743108379753397,0.3332629984016114,
0.4764440734911747,0.7512507876762456,0.2287275177293595,0.37730785240938775,0.5648376005813056,0.5616943803848345,0.5754218954547193,0.14370505243985338,0.2622254511888024,0.26342794641312073,
-0.1510070632580495,0.7838231612767356,-0.24471663551027267,0.5422603788437832,0.24544579139977366,0.5201838942536162,0.5213088223267105,0.7552773230885975,0.4493953087962334,0.2982696062260487,
0.0259077896231251,-0.07862420437999164,0.21400161442637716,-0.22200955615726345,0.378864326118792,0.289212506292322,0.6829735072935875,-0.22523895075117684,0.11865668248637878,0.24653132971022507,
0.06395625775015165,0.7510611821954462,0.4373688379432119,0.18402656704783193,0.5587511625167338,0.624338675597405,0.620322724544056,-0.3197484878199511,0.3754769581312467,0.3365117980199164,
0.5896125666885373,0.03917730992423838,0.26452121147661267,0.040677466743061975,0.5827345553308718,0.16698749715740285,0.5030440893479993,-0.13249820539898127,0.5163751585773636,-0.250425213511305,
-0.11180296923768615,-0.13716589696371786,-0.03569154159539665,0.4802749071059444,-0.08665774024402088,0.3240317088165299,0.6467149525586632,-0.15966883843362872,0.2821100567032903,-0.2724051153658764,
0.028927579625712928,0.1955465550390164,-0.26116974506646423,0.29054748783206846,0.4309726554291689,0.45176535548943453,-0.543504561288242,0.6464391403713289,-0.6562186764735256,-0.005172586274572094,
-0.2770231731934924,0.022008842159964726,-0.1774302902966639,0.280755588270364,0.19812219957000932,0.5385700185532706,-0.006583781350327533,0.7655933837793149,0.4715897928937733,0.39976690841365925,
-0.45534528075237773,-0.4908502668664183,0.32212419116587804,0.13800781367479487,0.41414382330148514,0.792538078316696,0.4513870409596986,0.6843661936295693,0.2642095020352791,0.6544848752901883,
0.6682690179217469,0.45065328039398694,0.441139094690961,0.5075950609401032,-0.07675158568869954,-0.028811553059577277,-0.07964289416020459,0.6402188170587605,-0.05351152483191593,0.005826150795255667,
0.08865008723904252,0.7123198184300031,-0.03136233949076066,0.499831076074896,-0.06307916841230551,-0.06875030897707068,-0.5295845912657896,0.6079920101631955,0.33172213326732586,0.4661168920828359,
0.5373605635896826,0.6177747163442006,0.41899996039696363,0.15305284792460103,0.49849978815443363,-0.03543360657724555,0.24063476107861873,0.17419896237600352,0.23178876097296403,-0.18715977239412168,
0.22740174641615835,0.2255051395774233,0.0914859036290627,0.04407682844941945,0.5882041359274994,-0.06241938660752391,0.21187074670291303,0.8219182113478477,0.16272777037169694,0.42334555650875993,
0.568432260666912,0.4168922549384216,0.09767765723218218,0.10425597803847096,0.6425573923901831,0.5326878145623007,0.03917146181684751,0.6362731799455568,0.22044002643793248,-0.05385046984646479,
-0.01912535628635118,0.12316986335546869,0.02531141999490002,0.007804432243324986,-0.1393040724790234,0.20189888990486518,-0.187808918401448,-0.18970601486928035,-0.45038835164062657,-0.18364251024023678,
-0.2276599034066165,0.3739053935802834,0.5163211801709133,0.34739363846465215,-0.07753224728278858,0.5766294534590893,0.6619478020890529,0.11192618700744322,0.17912394713402896,0.4293788073677852,
-4.455144062927806E-4,0.22881273344993736,0.5810459944796517,0.4368759970678265,-0.09937942139721513,0.8011062533844439,0.17968892020554214,0.6992975532227564,0.2560825120425524,0.4771511239447166,
-0.2946007213110506,0.3190804676381111,-0.167834516286669,0.2608825743431709,0.37317041044582827,0.2451758397756389,0.38778920229815045,-0.1137890352995235,0.2863930953900276,0.5921301455049299,
-0.3649261932202458,-0.36504923224265245,-0.18344984206973827,-0.7953392718507756,-0.5601160066222061,-0.4127288520028862,-0.5023412384004597,1.696674786702842,-0.7216585183974723,0.024810354546757174,
0.5862064308888981,-0.10517581946016655,-0.20852701021706307,0.55407785453396,-0.07726637847620907,0.2665190038972531,-0.11518483012215379,-0.0640847837429856,-0.16986410825817289,0.4705703781868301,
-0.6857874000501647,-0.1827808017252225,-0.40943012696044734,-0.42060849930243077,0.2688851805447157,-0.6449523451564383,-0.2800336484857247,0.47387840174986323,-1.0589583826425184,0.7456091978243324,
0.07935393481585543,0.6830699003080208,0.2683275184399033,0.6017328800089856,0.6924535381937658,0.08629840936105423,0.2758106787957821,0.562859876364027,0.587033633802224,0.07309659958085479,
0.6345251320889603,0.3531577475833119,0.053267726270048214,0.5152066797984405,0.3169251800871024,0.6061514814478702,0.2259835813364999,0.13743615377614324,0.1863118289527954,0.617248953201974,
0.5657580249447628,0.5228002048238033,0.34992332543815335,-0.9923044594279025,0.7535925742570156,-0.38834632608799763,0.13906733793367387,0.6448395799453627,0.6357380169334315,0.12087677900872176,
0.14247510262924626,-0.03697507468611284,0.02733770604371148,0.4287866603264457,0.5195727150732778,-0.14797926248187626,0.19935987812633263,-0.04522841436724605,0.1490278884593877,-0.022386582334806046,
0.600929160336425,0.3456646917731099,0.5171086463478759,-0.26265637471127334,-0.05493812453850667,0.8150313267776212,0.3180125475238654,0.6833841195302771,0.27504600289625,0.48798435460498124,
0.5358144962432139,-1.587852540852751,0.8785254572267452,0.9574296021676963,0.30414667370818715,0.7624419769463674,0.83410665674988,1.0312582538744666,0.8919969559254933,0.09143889837122042,
-0.07688076949605646,0.3187557100245744,0.6372334665892826,0.4982288986318113,0.035942477831250486,0.32880541526896057,0.6371650386838975,0.5042496818568923,0.09280353904580577,0.566406096116103,
0.0017830628951461512,-0.1538968299566913,0.467688693897802,0.28415095418764097,0.7372147746916689,0.5059695748459084,-0.08207209194909479,0.5015266021008118,0.2938697892263386,0.5126442105470499,
0.45301089736677463,0.48129851105460547,0.35714705702689403,0.4417212056384004,0.6397199023804696,0.5260752120634407,0.09284139746390474,0.456934286408871,-0.14504727948222312,0.38037543932184364,
0.6870267712093201,0.8285743038728303,-0.0017049795608508939,0.42575918309684,0.14765636410028374,0.5781802115533998,0.27294374541306976,-0.07596365125178783,0.19402698093860438,0.06402742118763227,
-0.32605495136194756,0.42867200178488307,-0.3129109472474205,-0.6466239169205522,-0.23213953029633483,-0.2773602679173352,-0.465943424446969,0.9334857336931622,-0.6095798646483227,0.08321358510070381,
0.6922877576114187,0.39674162155947307,-0.6378566282124575,-0.5588261786796547,-0.1328969841437034,0.44625185639522824,-0.390821891352525,-0.007251377064737412,-0.5937491809744834,0.25239830209393266,
0.13661743394680334,0.5402472816913874,0.7028181349321062,-0.11805746379030256,0.19386034477663688,-0.10361682642339176,0.6234554089188847,0.1373494525923206,0.5000804729562673,0.2544354239505654,
0.4927366907299434,-0.16422604928964268,0.03869753141508768,0.3247782513872162,0.6782137114674868,0.25543588362153935,0.6999886560125398,0.1190748247535103,-0.20065615200542042,0.47093489757528245,
0.3581906209536607,-0.1946393411952571,0.2466722713007881,0.20297058445252447,-0.17582745201128439,0.5721171578504498,0.37590637759708034,0.6846249095295072,0.10674843561449686,0.1421578042829596,
0.031997309998779,0.09114034713314854,-0.2630516647768011,0.22538926055923944,-0.33350936127442127,0.154932795665701,-0.22617469375944774,0.18308275508546196,0.4008103873392442,0.4793134965840764,
0.5536962098214789,0.41113728226675134,-0.21777974970201464,-0.2766740003970137,0.027923047985733335,0.4835390277692441,-0.019743818612832854,-0.1268370601931144,0.4204955381461875,0.5993098609025584,
-0.13708990846853408,0.5629247998806187,-0.09948147158236297,-0.021138013150017045,0.02877224290516777,0.33294240798729774,-0.3041945973899043,0.41357655865928683,-0.24467869549734053,-0.06689184531791342,
-0.32045146537945857,-0.2674041664379076,-0.09035564688944317,-0.4663143752350879,0.12101636376620299,-0.24743260534369643,-0.04122742969886986,0.9692093777581932,-0.43422889887421345,-0.6610853288570577,
-0.08456252450092522,0.27479426564782955,-0.11640358767912438,0.3256671906610102,0.3726065285357673,0.18221998533135253,0.3897819552421769,0.4343224876856507,0.4796994508013442,0.49368633727965094,
0.10370467626527832,0.22921515651336538,0.1340821569327136,0.22344891845334072,0.4339482309483907,0.5429165323230875,0.6430974392557586,0.13542224260276828,0.4586622516173448,0.36881012449062833,
0.3789843911612452,0.60431752545791,0.18816967609422636,-0.30046770682578144,0.44082883658406274,-0.09198649162307468,0.5596412251403352,0.15745795809914642,0.0904235212227108,0.2733527304587514,
-0.29731573190443417,0.007607888997161527,-0.029296557576957125,-0.2609107994405655,-0.24339445334829024,0.352479450040378,0.05152446762354674,0.6374369481996282,-0.16528988188064433,-0.15618082841356207,
0.4708358889970064,0.41163344640787264,0.48518781328368066,0.17216228782919887,-0.04894682705678388,-0.1165654704926449,0.601357078347521,0.14404777046478678,0.21468309072036607,0.45620526518684057,
0.7462452126801659,0.48119993395475447,0.4940652008385581,0.2329681699066749,-1.8018612565635028,-0.18240360509951914,-1.3018918876943322,0.5622886239842532,0.4690996024963516,1.6643385007859999,
0.3778413294273692,0.7502366620729319,-0.281596820574624,0.4672945795746468,0.6262495077494366,0.2549239291360542,0.19149609088461866,-0.17966977400840156,-0.07078763683854308,0.6362705951601192,
0.4517726440629704,0.2911980233656449,-0.11220681438050585,0.534079081796361,0.4476216758055333,0.6125889101557469,0.11683121633692509,0.5358627450934638,0.05043200207323223,-0.05094001670502491,
-0.2037859411816845,0.49864179945794795,0.5488135504999562,0.39848418988092543,0.6119066087804053,0.1882669422234241,-0.0799886808582683,0.3999908518303333,0.5622982006958084,0.26740909902697296,
0.6181260635763649,0.47658976635298883,0.4818569333805601,-0.20059552045732873,0.7488066303628569,0.686356137982857,0.688908863803939,0.8327315091101567,0.4376659172007042,0.3953056641301802,
-0.04231020434199299,0.2009798176120392,0.6423631175577462,-0.0507843778620698,0.14090573831467568,0.05391560599213074,0.47752082404986385,0.563340028860093,0.11994212282371529,0.42994288582000895,
0.5059144863347455,0.19684707622686526,-0.2391860414890079,0.23534152080118362,0.40965978524301,-0.09747269143967383,0.1414617207834908,0.27867905379460606,0.4410923152980248,-0.03946830583082345,
-0.0184097297142769,0.37389652508458,0.41688288553785136,0.6071699383603701,0.1451166368171601,0.23274497372977285,0.43274037431974294,0.006973012636469496,-0.09562009001842142,0.053705824863202876,
-0.10515124322388675,0.37536753620706265,0.9121617171581462,-0.11842196154602229,-0.4595877363595064,0.4636492282360994,-0.01625496682411691,0.2497168763140233,-0.49275560643964667,-0.1627036418502692,
0.4388358142384663,0.6418440265287232,-0.45179027499004765,-0.03712413657240114,0.7616617649252506,0.3947233435760512,0.4727838082944061,0.6621549345358131,0.27079487478707615,0.30093622350998883,
0.2233374595845229,0.5389892417205516,0.49638359530495546,-0.06557255275705672,0.18529965093117956,-0.09407257442024596,0.09559092788708558,-0.11749687704167529,-0.03230596385866225,0.2569731624755626,
0.3487013372610774,-0.13563316630223635,0.21809727792903255,-0.173808646598739,-0.08284472251753787,-0.05986260326549162,-0.06028058015063833,-0.32756385242928093,0.038791933879692875,0.3722477730118927,
-0.07235634531618133,0.26366802303023357,0.5140962448161939,-0.3296978315309841,-0.1535039803124026,0.6174600058978206,0.16592954652375666,-0.01916513027424258,0.32366699661352405,0.447781387019643,
1.3058818270580166,-0.19698008779261486,-0.7410346347769942,-0.6933413289496907,-0.44191484562794225,-0.6876980877560783,-0.4687377627113578,0.3855211123722297,-0.6318254964025226,-0.3820784130113337,
0.02823621884503132,-0.2561107790917454,-0.38435606152917196,-0.6383526628265228,-0.45949546271617436,-0.17510077403091565,-0.2866961529695522,1.8020587133033172,-0.3517996733621112,-1.105286165329323,
0.7139015478862456,0.9585451847860227,1.120382963971142,-1.7752209211162104,0.5177604663989583,-0.6614753382880192,0.7214272807160069,0.18305811058232999,1.669601075678098,-0.28433161796265977,
-0.3584543694736657,1.0842710357606826,-0.5202318272112426,-0.15583091623631995,-0.2302637775880348,-0.006272924251882918,-0.0673029582526204,-0.47333311534693895,-0.7128375277208473,0.05633284969451758,
0.18667752611102992,-0.14313636092349097,0.42488106884105425,0.6879812984984164,0.188204477446492,-0.10337311632370996,-0.079281965494958,0.6750571437697496,-0.1893278617441369,0.6212647574231442,
0.5475640045062538,0.06563671190026417,0.32608582855319784,0.6309622144681347,0.3887116759685122,0.8269088776466215,0.5445011656269357,-1.3822981506231318,0.5032657179393542,1.2740847709997132,
0.316081839838025,0.5916640098436511,0.12521612357122006,0.39055384727481063,0.36006827618584186,-0.12076220276896624,0.18009276681784772,0.2566167398847133,0.37392442514230767,0.3364091644620243,
0.4989784789650912,0.02855734713374113,-0.12103453068768125,0.15799281237041038,-0.14017033761822417,-0.10229803675254948,-0.3387815442717413,0.5395523967472878,0.2024574720188519,0.48595190953050993,
0.30559921463743095,-0.02166400976508306,0.48192709042188875,-0.07631908400607694,0.7016822447297086,0.39289813171375554,0.1898797534552755,0.7367089393781595,0.5559826244393933,0.49894390308470477,
0.10954504989907925,0.017884949075853484,0.653822259521092,0.6499842395591298,0.7521800343833334,0.70471314822482,-0.10201445084843239,0.41298521151231843,0.31148544064976874,-0.1878652105380199,
0.08085451770464,0.21104102312923895,0.6280748564434026,0.3786671368450019,-0.06613589335634266,0.06300194091968919,0.14845772246537473,0.6701771358036829,-0.20974877338013048,0.3525851965098443,
0.6758005121680862,-0.11127038219460296,0.453960184022419,0.12623422523886102,0.12515900651107909,0.3589693112275615,-0.20522325119647647,0.6942877015722789,0.2674772363962404,0.2631910915174882,
-0.6648657262922609,-0.30269052963572834,1.8381604208724593,-0.8476341524661098,-0.8917101333281896,-0.6818799231604973,1.2774584814329109,-0.5590500890426086,-1.132537257219276,-0.591504181057207,
0.04407838175067496,0.013971687852336268,-0.39642946227162096,-0.27498304549839414,-0.24931077996129228,-0.2528325931042714,-0.38213512786858056,0.39757435258081386,-0.5033393269782754,-0.2838280172351756,
0.6179433158262367,0.8186069606782312,0.6803975962530557,0.4570449704850519,-1.8100858732566832E-4,0.8855718679702872,0.5143088322287577,-0.7612581678316479,0.29935200987990274,0.8195484614018463,
0.17444929011190954,0.7481338400934826,0.04597933098031213,0.13858497081895557,0.45070003522820073,-0.15939720773835586,0.5930802979804862,0.7542938511392092,0.003640817592842797,0.14252804869464042,
0.5942675951772155,-0.23439302696250636,0.384547237020589,-0.014759992977836044,-0.060959274045227566,0.03516573271793893,-0.09255275665325524,0.12437535503341307,0.15289935491408108,-0.06276784541188807,
0.6877445224549044,0.6264848336852425,0.26721808070180786,0.18759261513956263,0.3700181655566351,0.8174661193197715,0.13424865304718372,0.18488977047321314,0.18420963906222926,0.30950028751477177,
0.5441840312982171,0.13984410642231204,0.38323271442162327,0.0030298647638722347,0.6700367386866941,0.7673780028481568,0.5708035919825428,0.8378951111343605,0.2503391674121843,0.5002035541704203,
0.6939069698589727,-0.32316848994876257,0.4161540418480494,0.2641571098495702,0.18093925103185912,0.7511052994728505,0.0023546644525953425,0.12556153586752639,0.11905873458793609,0.35293399772361017,
0.37969560965233135,0.8322232486343556,0.6460945193233697,0.053628952277034445,0.26723014494605396,0.10907305567056466,-0.1630100328716664,-0.003019112827062787,0.28924509488166,0.2583127967084722,
